digraph Tree {
node [shape=box, style="filled, rounded", color="black", fontname=helvetica] ;
edge [fontname=helvetica] ;
0 [label="koi_prad <= 13.62\ngini = 0.4401\nsamples = 5612\nvalue = [1835, 3777]", fillcolor="#399de583"] ;
1 [label="koi_model_snr <= 14.55\ngini = 0.4985\nsamples = 3842\nvalue = [1816, 2026]", fillcolor="#399de51a"] ;
0 -> 1 [labeldistance=2.5, labelangle=45, headlabel="True"] ;
2 [label="koi_model_snr <= 11.15\ngini = 0.2227\nsamples = 1277\nvalue = [163, 1114]", fillcolor="#399de5da"] ;
1 -> 2 ;
3 [label="koi_depth <= 4715.0\ngini = 0.0722\nsamples = 800\nvalue = [30, 770]", fillcolor="#399de5f5"] ;
2 -> 3 ;
4 [label="gini = 0.0678\nsamples = 797\nvalue = [28, 769]", fillcolor="#399de5f6"] ;
3 -> 4 ;
5 [label="gini = 0.4444\nsamples = 3\nvalue = [2, 1]", fillcolor="#e581397f"] ;
3 -> 5 ;
6 [label="koi_period <= 179.5112\ngini = 0.4022\nsamples = 477\nvalue = [133, 344]", fillcolor="#399de59c"] ;
2 -> 6 ;
7 [label="gini = 0.4585\nsamples = 368\nvalue = [131, 237]", fillcolor="#399de572"] ;
6 -> 7 ;
8 [label="gini = 0.036\nsamples = 109\nvalue = [2, 107]", fillcolor="#399de5fa"] ;
6 -> 8 ;
9 [label="koi_insol <= 763.975\ngini = 0.4583\nsamples = 2565\nvalue = [1653, 912]", fillcolor="#e5813972"] ;
1 -> 9 ;
10 [label="koi_duration <= 12.14\ngini = 0.3476\nsamples = 1947\nvalue = [1511, 436]", fillcolor="#e58139b5"] ;
9 -> 10 ;
11 [label="gini = 0.2929\nsamples = 1796\nvalue = [1476, 320]", fillcolor="#e58139c8"] ;
10 -> 11 ;
12 [label="gini = 0.3561\nsamples = 151\nvalue = [35, 116]", fillcolor="#399de5b2"] ;
10 -> 12 ;
13 [label="koi_teq <= 1948.5\ngini = 0.354\nsamples = 618\nvalue = [142, 476]", fillcolor="#399de5b3"] ;
9 -> 13 ;
14 [label="gini = 0.4492\nsamples = 364\nvalue = [124, 240]", fillcolor="#399de57b"] ;
13 -> 14 ;
15 [label="gini = 0.1317\nsamples = 254\nvalue = [18, 236]", fillcolor="#399de5ec"] ;
13 -> 15 ;
16 [label="koi_time0bk <= 127.1359\ngini = 0.0212\nsamples = 1770\nvalue = [19, 1751]", fillcolor="#399de5fc"] ;
0 -> 16 [labeldistance=2.5, labelangle=-45, headlabel="False"] ;
17 [label="koi_prad <= 48.965\ngini = 0.4898\nsamples = 7\nvalue = [4, 3]", fillcolor="#e5813940"] ;
16 -> 17 ;
18 [label="gini = 0.0\nsamples = 4\nvalue = [4, 0]", fillcolor="#e58139ff"] ;
17 -> 18 ;
19 [label="gini = 0.0\nsamples = 3\nvalue = [0, 3]", fillcolor="#399de5ff"] ;
17 -> 19 ;
20 [label="koi_prad <= 18.06\ngini = 0.0169\nsamples = 1763\nvalue = [15, 1748]", fillcolor="#399de5fd"] ;
16 -> 20 ;
21 [label="koi_model_snr <= 2304.8999\ngini = 0.1298\nsamples = 129\nvalue = [9, 120]", fillcolor="#399de5ec"] ;
20 -> 21 ;
22 [label="gini = 0.1042\nsamples = 127\nvalue = [7, 120]", fillcolor="#399de5f0"] ;
21 -> 22 ;
23 [label="gini = 0.0\nsamples = 2\nvalue = [2, 0]", fillcolor="#e58139ff"] ;
21 -> 23 ;
24 [label="dec <= 51.486\ngini = 0.0073\nsamples = 1634\nvalue = [6, 1628]", fillcolor="#399de5fe"] ;
20 -> 24 ;
25 [label="gini = 0.0061\nsamples = 1629\nvalue = [5, 1624]", fillcolor="#399de5fe"] ;
24 -> 25 ;
26 [label="gini = 0.32\nsamples = 5\nvalue = [1, 4]", fillcolor="#399de5bf"] ;
24 -> 26 ;
}